-2.953502416610717773e+00 -5.982105135917663574e-01 2.411766499280929565e-01 1.294698417186737061e-01 4.401788413524627686e-01 -8.764591813087463379e-01
1.073664575815200806e-01 -4.578824341297149658e-02 7.482853531837463379e-02 1.568150967359542847e-01 7.035256624221801758e-01 2.414319962263107300e-01
5.137962698936462402e-01 -1.531700253486633301e+00 -6.860782951116561890e-02 6.736731529235839844e-02 1.967591345310211182e-01 2.449399679899215698e-01
-2.945615053176879883e-01 -8.476042747497558594e-01 4.996172711253166199e-02 2.785007655620574951e-01 1.477371156215667725e-01 5.579289421439170837e-02
1.072548151016235352e+00 4.066888391971588135e-01 -4.197761416435241699e-02 4.579600095748901367e-01 5.770486593246459961e-01 1.007819641381502151e-02
4.491820633411407471e-01 -1.051755189895629883e+00 3.943514823913574219e-02 2.920219302177429199e-01 -1.189069524407386780e-01 -4.734100997447967529e-01
-9.446588158607482910e-01 -5.117694735527038574e-01 1.787926554679870605e-01 -6.339218616485595703e-01 -1.727847498841583729e-03 -4.299983978271484375e-01
-6.388070583343505859e-01 -2.217558920383453369e-01 2.143165916204452515e-01 -9.209733009338378906e-01 -2.414847612380981445e-01 -4.084886312484741211e-01
-2.342134267091751099e-01 -3.072549104690551758e-01 5.313896760344505310e-02 1.219915002584457397e-01 5.053874850273132324e-01 1.923047900199890137e-01
2.772369861602783203e+00 -3.333752870559692383e+00 -2.364195585250854492e-01 1.898703575134277344e-01 -2.440236359834671021e-01 1.088607460260391235e-01
5.414344072341918945e-01 7.635875791311264038e-02 -1.808579266071319580e-01 9.058050513267517090e-01 4.354755580425262451e-01 2.806530892848968506e-01
1.742694258689880371e+00 -1.641593813896179199e+00 -1.440230756998062134e-01 1.226996406912803650e-01 -2.635456919670104980e-01 -1.119311526417732239e-01
